//Numpy array shape [1, 20, 5]
//Min -2.282529592514
//Max 0.998606860638
//Number of zeros 0

#ifndef W4_H_
#define W4_H_

#ifndef __SYNTHESIS__
model_default_t w4[100];
#else
model_default_t w4[100] = {0.45116651, 0.14815848, -0.63023871, -1.66775167, 0.22393431, -0.03790470, -0.12212493, -0.35172504, 0.52183086, 0.35942510, -1.80617487, -0.92911851, 0.35153729, 0.40856940, 0.36433759, -0.08013795, -0.15452400, 0.27966076, -0.62787122, -0.96843815, -2.28252959, 0.93770480, 0.99860686, 0.78086752, 0.47786203, -1.13869369, 0.32662180, 0.20267324, 0.28377038, -0.51129997, 0.15744089, 0.44591725, 0.14602722, 0.92127919, -0.40457714, 0.54408425, -2.24816966, -0.05434792, -0.25777769, -0.42421541, 0.73907793, 0.35646737, 0.30990812, -0.75408959, 0.45788431, 0.39400434, -0.88363999, -0.57130259, -1.27107942, -1.93385041, -0.90472555, 0.55394900, 0.03802403, -0.31292605, -1.02567315, -1.10322952, 0.32113111, -0.04892088, 0.05826090, 0.04136922, 0.55453229, 0.36015370, 0.26702648, -0.05253239, 0.48390275, -0.33853775, -1.57747877, 0.10461330, 0.55677676, -0.47881040, 0.25278011, -0.04749404, -0.49462754, -0.04558546, 0.39669982, 0.08184724, 0.24971160, 0.07289837, -0.24835780, -1.19152236, -0.42016441, 0.03187648, -0.41069925, -1.90619278, -0.06782224, -0.20300160, 0.56378698, 0.00552179, 0.26178017, 0.74423301, -0.69249123, -0.28330475, -1.07759643, -0.93012244, -0.49453977, -0.15201217, -1.27108920, 0.34724155, -0.60717529, 0.37026450};
#endif

#endif
