//Numpy array shape [50, 20]
//Min -2.345744132996
//Max 1.245225548744
//Number of zeros 0

#ifndef W6_H_
#define W6_H_

#ifndef __SYNTHESIS__
model_default_t w6[1000];
#else
model_default_t w6[1000] = {-1.10007942, 0.17041217, -0.45624146, -0.32770959, 0.49315006, 0.49538562, -1.29733133, -0.04820939, -1.07568920, -0.65505874, 0.63708168, 0.12752272, 0.44201836, 0.48210102, 0.35414085, 0.32496917, -0.64779097, 0.79051244, 0.37389275, 0.50597757, -0.92800140, -0.07896622, -0.54177618, -0.21563171, -0.05326506, 0.04140239, 1.02238345, 0.01229256, -0.53875297, -0.24243493, 0.36857513, 0.47452092, 0.97753841, 0.11234572, 0.68875861, 0.52930522, -0.06680440, -0.08400245, -0.25942943, 0.79861575, 0.70045018, 0.86364287, 0.66943890, 0.10599528, -0.63293236, -0.38693720, -0.05332758, -0.47681421, 0.26934364, 0.29257125, -0.62590206, -0.78893256, -0.47890916, -0.18214862, 0.26979080, -0.24801989, 0.57392120, 0.42506230, 0.54884630, -0.57198137, 0.14138032, -0.34650019, -0.29855233, -0.20275913, -0.03434175, 0.10918082, -0.05550274, 0.06646173, -0.35143423, 0.08078025, -0.20206361, 0.34430739, 0.54995358, -0.02302898, 0.50790036, 0.04786890, -0.38108832, -0.41334176, 0.13511762, 0.29516539, -1.43961060, 0.21609291, 0.37155062, 0.20808008, -0.19834062, 0.76466864, 0.22865134, 0.03046533, 1.10016215, 0.75953835, 0.33632377, 0.11187724, 0.20499910, -0.24643750, 0.30060521, -0.22540328, 0.47118142, -0.08039670, -0.57015115, 0.49965987, -0.13929348, -0.15653493, -0.18206714, -0.54457343, 0.45136136, 0.37693283, 0.13734026, -1.25358582, -0.01656965, -0.07497098, 0.21240769, -0.30479372, 0.41207671, 0.32785776, 0.16232251, 0.55662936, -0.60769600, -0.30174482, -0.36217043, 0.30911350, -0.20845057, -0.57949346, -0.38953140, -0.53081852, 0.00437916, 0.21736555, -0.06288614, -0.54484260, -0.20986573, -0.28657559, 0.25253916, 0.83913225, 0.55912066, 0.10473701, 0.30599940, 0.80350894, -0.18759006, -0.29346707, -0.00049429, 0.11465301, 0.16607006, -0.34625679, -0.51045585, 0.52412599, -0.39430597, -0.73909736, -1.25426316, 0.43429017, -0.93641269, -0.50256741, -0.47219419, -0.78746718, -0.28862119, -1.69199669, 0.13265283, -0.90038031, 0.09118130, 0.16319485, 0.35375315, -0.30701712, 0.61917251, 0.78697872, 0.21859343, 0.74754900, 0.12410243, 0.27950707, 0.18476410, -0.10884392, 0.28261632, -0.01262358, -0.19688420, -0.89536583, -0.01055325, 0.54266781, 0.11093096, 0.01054667, 0.54301196, 0.94589472, -0.46585420, 0.01802962, 0.47052261, 0.07954303, -0.06940629, 0.13919039, 0.31005880, 0.52246714, 0.06976753, 1.19123840, 0.34030217, 0.19031900, -0.13011657, -0.16492641, 0.10499766, 0.67679077, -0.10543052, 0.69654876, 0.49286464, 0.24849086, -0.36195219, -0.02506100, -0.23136368, 0.11505485, -0.27074128, 0.78942370, 0.71915972, 0.32491925, 0.50945574, -0.14841716, -0.90861005, 0.32455385, -0.25211728, 0.18769905, 0.60918230, 0.94627839, -0.47357920, -0.10199469, -1.07573724, -0.28666884, 0.58920670, 0.72171360, -0.65341079, -0.22605583, -0.70541078, 0.57513857, 0.36539832, 0.18714045, 0.32647565, 0.08633102, -0.86002892, 0.32776636, 0.33424321, 0.66130054, 0.60290813, 0.82934844, 0.07875720, 0.08403384, -0.36173490, -0.07196730, 0.28924170, 0.35281911, 0.07706827, -0.58081579, -0.00423676, -0.68694162, -1.02636564, -0.63838160, -1.39358783, -0.19918233, -0.03155027, -1.17137992, -0.39770049, -1.00324619, 0.19689614, -1.27487874, -0.17376116, -0.21864535, -0.19719759, 0.22214060, -0.61872137, 0.14787048, -0.69961888, 0.89028502, 0.95958102, -0.73953438, -0.52721000, 0.23519138, -0.13289748, 0.03250263, -0.16755258, -0.02487632, -0.02452262, 0.41384682, 0.03468182, 0.33147904, -1.02526557, -0.06978446, 0.62960738, 0.97882485, -0.19570832, -0.53343511, -0.56457579, 0.33576807, 0.49435425, -0.46031272, 0.05973309, 0.85361212, 0.59496927, 0.18537176, 0.95259166, -0.13591184, -0.21553174, 0.26098540, -0.69579536, 0.17726982, -0.48577499, -0.38948202, 0.44603819, 0.52715451, -0.00813884, 0.19910301, -0.81527060, 0.14617473, -0.01258014, 0.09630830, 0.25734159, 0.60722220, -0.06117380, 0.02508059, -0.04432744, -1.55545425, -0.71956843, 0.42953816, 0.71132672, 0.51690334, 0.37678030, -0.03687891, -0.71794331, -0.29971507, 0.42211521, 0.55233085, -2.09880400, -0.00721644, -0.48109618, 0.34242767, 0.80833101, 0.31823340, 0.15058623, 0.18546909, 0.15845838, -1.07094908, 0.14722696, 0.31936568, 0.31034797, 0.38236859, 0.71313137, -0.05754380, -0.39238796, -0.26389527, 0.49238089, -0.68100208, -0.24260418, -0.14780273, 0.16924016, -0.37610233, -0.88670540, -0.67382228, -0.20135248, -0.16299382, -0.72049236, -0.00298269, 0.51415944, -0.20219880, -0.05305767, 0.09152444, -0.80435044, 0.20300780, 0.11742934, -0.39627039, -0.34092337, -0.33134890, -0.31502298, -0.65734029, 0.68733823, 0.04887445, 0.01845705, -0.53435314, 0.02255775, -0.09768055, -0.12701528, 0.39827770, -0.19860595, 0.01728531, -0.25101492, -0.33341733, -2.01039553, -0.05231659, 0.72877461, 0.98374176, -1.37380993, -0.67354101, -0.90142250, 0.14525373, 0.29731733, -0.46282354, 0.32731959, 0.82670414, -0.35038823, 0.08576534, -0.09558754, 1.18633962, -0.33330178, 0.04760834, -0.13282764, -0.26201430, 0.40001488, -0.85165292, 0.42279413, 0.53418136, 0.14152679, -0.35307401, -0.30952272, -0.64489961, 0.21070069, -0.82289040, 0.51377499, -0.03144163, -0.23063274, -0.55026358, -0.49661648, -0.00170440, -0.86158431, 1.20034492, 0.49195471, -0.15508910, -0.26731643, -0.79254246, 0.16182485, 0.00536137, 0.65465897, -0.10045972, -2.09773374, -0.50441319, -0.88315016, -0.49561971, 0.66392595, 0.26065686, 0.20894878, -0.43253744, -0.26774821, 0.15136199, -0.95418376, -0.21534644, 0.23069830, -0.29883954, 0.47830141, 0.35351834, 0.10509253, -0.05471607, 0.30009544, -0.12442024, 0.12481072, -0.04114361, 0.02576412, 0.19846772, -0.15354492, -0.66141707, -0.13971223, 0.07301651, -0.41845968, -0.43781358, 0.39836401, 0.34151933, -0.40042791, 0.13921656, -0.59049642, -0.10684636, -0.21431209, -0.29470003, -0.59388018, -0.00345704, -1.93304169, 0.65245867, 1.08385885, 0.79825807, -0.22126509, 0.13704929, 0.07879902, -0.81670094, -0.25400046, -0.01264122, -0.38725862, 0.86615151, -0.24925926, -0.13960090, -0.39779443, -0.25348723, -0.09185299, 0.45687625, -0.63552308, -0.35518253, -0.81636441, 0.75327426, 0.52603835, 0.81233352, 0.42285401, 0.46003583, -0.47346339, 0.52345347, 0.37502474, 0.17552972, -0.69189972, -0.59691507, 0.00620070, -0.52781630, -0.12499687, -0.12948492, -0.33927104, 0.38212201, 0.23894383, 0.13780031, -0.33384609, 0.09225019, 0.70141172, -0.12133250, 0.24158034, -0.75700241, 0.07877461, 0.29702845, -0.12148052, -0.66281235, -0.88437742, 0.57897860, 0.42907956, 0.13975118, 0.13476898, -0.53705680, -0.93597829, -0.12562904, 0.24798611, -0.08346336, -0.23368666, 0.27163556, 0.93399268, -0.13134593, -0.32743639, 0.09147254, -0.13787679, 0.40975049, -0.22821467, -0.31497192, -0.88008416, -0.38011572, 0.05984965, 0.31098205, 0.56609493, 0.02794489, -0.43751088, -0.03715240, 0.94523799, 0.71167594, 0.14897160, -0.89437455, 0.25672987, 0.07321987, 0.25575757, -0.71124208, -0.01199459, -0.38471577, -0.25781134, -0.28768465, -0.14889222, 0.40924263, -0.28425425, -0.63042265, -0.34135628, 0.07162292, -0.38074484, 0.13391741, 0.01502231, -0.03839360, -0.63550359, 0.28307021, -1.19365060, 1.24522555, -0.21481965, -2.34574413, 0.02115521, -0.31198955, 0.10742558, -0.05584203, 0.18260542, -0.04088397, -0.99268663, -1.37389362, -0.96954858, 0.35967386, 0.41001269, -0.13092072, -0.56958795, 0.10774975, 0.00661710, 0.94481492, -0.63244671, -0.10659857, -0.63569295, 0.13292383, -0.37480938, -0.31632477, 0.03025486, 0.47655687, -0.23384233, -0.38043725, -0.14493477, 0.18058673, 0.10833837, -0.37856653, 0.86421096, 0.62815201, -0.22737913, -0.12541009, -0.11366665, 0.35110244, -0.40723795, 0.08429495, 0.34901470, -0.12147592, -0.24709690, 0.31804857, -0.32021219, 0.17409538, -0.68805981, 0.69657522, 0.32830995, 0.51923221, -0.51444942, -0.02409330, -1.05182123, -0.49218956, 0.00330813, -0.22675058, 0.01193231, -0.26164576, -0.53623456, -0.01564528, 0.41414139, -0.03192013, -0.34986278, 0.75088799, -0.36324352, 0.25590044, -0.50683385, 0.05179144, 0.38998631, 0.21338794, -0.15837184, -0.44429770, -0.95892006, 0.74071866, 0.26910511, -1.28018820, -0.42489123, -0.16089615, -0.14746459, 0.26556265, 0.35734543, -0.46982476, 0.05025707, -0.39053535, -0.25093564, -0.20697887, 0.04188511, 0.23753361, -0.18298486, -0.15692984, -0.41359770, -0.01246487, -0.38626829, -0.00182704, -0.05114339, 0.15705106, 0.36915371, 0.15267992, 0.45691749, -0.35034645, 0.21614717, -0.12034132, 0.34852791, 0.52818000, 0.72284645, 0.05123477, -1.01335025, -0.01852793, -0.97747117, -0.56043923, -0.50743455, -0.57127309, -0.57872832, -0.17076734, -0.68414575, 0.10732995, -1.88331330, 0.36248282, 0.39190969, -0.29171067, 0.19839942, 0.19066502, -0.54135728, -0.13708259, 0.29097578, -0.19633943, -0.10795242, -0.29070708, -0.57574964, 0.01057481, -0.24540900, -0.64492714, 0.68038988, 0.35207906, -0.97269416, 0.00520282, -0.56444222, -1.07201171, -0.01052817, 0.25475240, -0.14835562, 0.30257460, -0.29170173, -0.10335784, -0.17371644, 0.48952544, -0.53383797, 0.39630359, -0.07451075, 0.08919228, 0.74356306, 0.43272915, -0.32931587, -0.87263077, 0.33396518, 0.15163299, 0.46641016, 0.06855807, 0.09024388, 0.04215463, -0.08503935, 0.32863215, 0.08526578, -0.54946864, -0.20391093, -0.21335176, -0.59235650, -0.33421901, -0.59170002, 0.36388347, 0.38161418, 0.29977489, -0.18901701, -0.15458982, 0.38035712, -1.61236060, -0.41275880, -0.61893779, 0.01041799, -0.18736587, 0.43357340, -0.20543446, -0.07436012, 0.13427685, -0.16381904, -0.27637449, -0.18722329, 0.23972662, -0.12152962, -0.58492714, -0.17655997, 0.29846215, 0.07006666, -0.50445205, -0.03022266, -0.04392969, -0.71773964, -0.67944127, 0.62181711, -1.21308184, -0.42675564, 1.23314297, 0.14942867, -0.22943096, 0.52541214, -0.23916519, -0.82418770, -0.23305555, -0.38062358, 0.35134637, 0.32244003, -0.00636785, 0.16510625, -0.08961307, -0.04626817, -0.19715746, -0.21354553, 0.73031604, 0.08656056, 0.08241748, -0.39180470, 0.20476988, -0.18447261, -0.13621405, 0.17043401, 0.20097253, -0.65091538, 0.05637924, -0.58174789, 0.00311087, 0.13118008, -0.29272646, 0.37589064, 0.09836818, -0.44633824, -0.07273316, -0.20897128, -0.96118391, 0.61399639, 0.10249659, 0.40214318, -0.15994002, -0.21689387, 0.09350698, 0.45627654, -0.41522554, -0.16999230, 0.28894973, 0.57185090, -0.29605547, -0.28432029, -0.47821069, -0.88984513, 0.37667099, 0.50711668, -0.38003245, 0.77626324, -1.01878309, -0.13442358, -0.50037062, 0.42691293, 0.49375331, 0.14156739, 0.41559383, 0.57135892, 0.29346848, -0.71522415, 0.16212922, 0.21209045, 0.20000289, -0.81749690, 0.01646274, -0.19629835, -0.12992336, 0.68979996, -0.55375350, -0.13186809, -0.06654893, 0.45940554, 0.08054646, 0.28289047, -0.14645037, 0.11506009, -0.38970748, 0.06699380, -0.25781691, 0.06456849, -0.17324673, -0.02005371, -0.00862777, -0.19845070, -0.22470230, -0.34154105, -0.39105526, 0.28521907, 0.01886963, -1.10601389, 0.12497836, -0.22695988, -1.20963383, -0.65398508, -0.09321730, 0.38522446, 0.74356985, 0.21029918, -0.79351801, 0.03923906, -0.40668148, -0.36111322, 0.09982806, -0.50834388, 0.41041496, 0.08528919, 0.69352454, -0.09608786, 0.10721418, -1.07522094, 0.69468975, -0.43857294, -0.13151702, -0.14888451, -0.06193238, -0.07844186, 0.08545177, -0.05056817, 0.30902225, 0.02487343, 0.09273856, 0.18653812, 0.13839222, -1.45988750, -0.63298506, 0.95119739, 0.68377858, -0.10522395, -0.82565475, -0.89341760, 0.10713553, 0.29730454, -0.35056794, -0.33712694, 0.07834945, 0.38100308, 0.16572675, -0.02671799, -0.02738874, -1.09356940, 0.49481136, 0.86529541, 0.49664855, 0.05264381, 0.20046055, -0.15118366, -0.38603637, 0.26753232, -0.19602838, -0.15658706, -0.23550434, -0.47757080, -0.29743272, -0.48164737, -0.06147980, -0.32071835, -0.67231512, -0.24083331, 0.08602279, -1.27824509, -0.41811061, -0.16476843, 0.45008639, -0.60896862, 0.22270527, 0.07134391, 0.16265047, 0.06304419, 0.06876422, -0.37428021, -0.67554551, -0.01635159, -0.18762043, 0.20897764, 0.05311096, -0.06799818, 0.13325566, -0.15681989, -0.05786663, 0.13681099, 0.13095993, 0.20170563, 0.21234789, -0.18852544, 0.10808306, 0.17296933, -0.66958773, -0.04746281, 0.37659287, -0.55576223, 0.20635580, 0.44103336, 0.28978378, 0.01489481, 0.18941186, 0.33662200, 0.42359048, 0.39278093, 0.70628464, -0.52711493, 0.29693231, 0.47934452, -0.30033517, 0.01058062, -0.09867231, -0.69659156, -0.28666252, -0.24763246, -0.67980582, 0.45796710, 0.56560767, 0.21299532, 0.48670813, -0.22234513, -0.05377398, -0.84338862, -0.16302261, 0.15441273, 0.34411499, 0.35198042, -0.21595374, -0.13960506, 0.39487454, -0.46838766, -0.78851783, 0.28790408, 0.22299241, -1.09529519, -0.47950131};
#endif

#endif
