//Numpy array shape [20, 10]
//Min -1.701602697372
//Max 1.479028344154
//Number of zeros 0

#ifndef W8_H_
#define W8_H_

#ifndef __SYNTHESIS__
model_default_t w8[200];
#else
model_default_t w8[200] = {1.47902834, -1.19551468, -0.32848585, 1.40536582, 0.19705594, 0.77237034, -1.46586537, 0.25305915, -0.41468471, 1.08703494, -0.21855427, -0.39547771, 0.06484534, -0.45914671, -0.89889091, -0.39319968, 0.62442684, -0.40744999, 0.16238095, -0.26631457, -0.01591558, -0.50390583, 0.69017643, -0.32503495, -0.28093967, -0.20430465, 0.53143418, 0.09736846, -0.69701761, 0.29158309, 0.02091610, 0.64976561, -0.42761862, -0.44522825, 0.12018353, -0.27594596, 0.33054534, -0.73455942, -0.21545684, -0.43310478, -0.62508804, -0.82283908, 0.46879762, 0.59934646, -0.49148729, 0.39419192, 0.03459775, -0.02647213, 0.49810952, 0.03652948, -0.59817338, 0.56509340, -0.27289909, 0.55054021, -0.22371438, 0.53818947, 0.61853004, -0.57910758, 0.56762415, 0.25674066, -0.15207735, -0.86353105, 0.66885716, -0.04936234, -0.21297014, 0.40162599, -0.37430641, -0.50290686, 0.01986518, -0.13265683, 0.31500021, 0.36526534, 0.22421452, -0.98390728, -0.18621431, -0.20198220, 0.83285379, 0.56114686, -0.08886091, 0.03096175, 0.40914398, 0.56471622, 0.20210910, -0.13215484, 0.43131870, -0.33579111, 0.89232022, 0.28540605, -0.19277653, -0.00451351, 0.32014948, 0.55796784, -0.29807582, -0.28480569, 0.08489880, -0.25840229, 0.90739375, 0.04736261, -0.12578301, -0.48666790, -0.41133934, -0.22695057, -0.39587921, 0.46180817, 0.46867290, 0.57017791, -0.03050481, -0.34772056, 0.59289849, 0.05141687, -0.24365738, -0.25834641, 0.69713062, 0.12503597, -0.49438491, 0.15605991, -0.04324122, 1.01033473, 0.57628661, 0.70717347, 0.20925546, -0.10884453, 0.65157789, -0.54329854, 0.21978508, 0.14394149, -0.11947152, -0.47501585, 0.51802713, 0.44332170, 0.10042565, -0.75697774, -0.01350246, 0.82828414, -0.12065253, 0.59691548, -0.34870434, -1.33981645, 0.14320505, -0.02191789, -0.20801111, -0.49675396, -0.05399235, 0.20966865, 0.21721746, 0.38730171, -0.25553873, 0.23001006, -0.03403705, 0.40848452, -0.58047163, 0.07667638, 0.03327015, -0.07317697, 0.35458654, 0.42900005, -0.14285554, -1.70160270, 0.37577507, 0.54914457, 0.21924256, 0.08210128, 0.41708684, -0.83336180, -0.60026687, -0.27161640, 0.71776074, -0.06225163, -0.23184830, 0.16637920, -0.50015372, 0.29625788, -0.02611405, 0.55361766, 0.06805204, 0.01800208, 0.26294002, -0.32914770, 0.07732870, -0.17559689, 0.00009375, -0.50259024, -0.36565989, -0.11364980, 0.47477505, 0.12714061, -0.44596127, -0.38292202, 0.10448796, -0.35474855, -0.34196901, -0.52375245, -0.12376022, -0.46893215, 0.12222005, 0.56813091, 0.03049227, -0.78794581, -0.01431283, -0.13991384};
#endif

#endif
