//Numpy array shape [1, 20, 5]
//Min -2.358567237854
//Max 0.903441429138
//Number of zeros 0

#ifndef W4_H_
#define W4_H_

#ifndef __SYNTHESIS__
model_default_t w4[100];
#else
model_default_t w4[100] = {0.13199978, -2.17204499, -0.30362403, 0.44781059, 0.64684737, -0.38729146, 0.52550298, 0.39316633, 0.61386329, -0.22679287, -0.46577671, 0.90344143, -0.70397413, -0.24471284, -1.85739708, 0.04202272, -0.79835027, -0.19236238, 0.01467086, -1.07960820, -0.05517657, -0.13130429, 0.00542427, -1.30149090, 0.23633495, -0.19022793, -0.24510038, 0.14572525, 0.05844443, 0.42857593, -0.32331428, 0.27818906, -0.38500202, -1.23669553, 0.17888607, 0.15573101, -0.11554149, 0.23955053, -1.26151812, -0.13064601, -0.36860001, -2.15073037, -0.18428981, 0.14076319, 0.51636350, 0.18626216, 0.12437697, 0.15420590, -0.07267449, 0.09991714, -0.07701729, -2.29871702, -0.21211578, 0.47959772, 0.73356098, -0.17475230, -2.05690193, -0.09208017, -1.08923018, -0.22965635, -0.10854772, 0.53853601, -1.07786191, 0.25613603, -2.35856724, -0.23386075, 0.31085873, 0.34573537, 0.73340464, 0.35248244, -0.20322549, -0.31479013, 0.06716221, 0.21376480, 0.55004317, -0.12472138, -0.30134887, -1.04180241, -0.18226740, -1.35739398, 0.26931420, -0.42849499, 0.26516485, -0.32786375, 0.41617978, -0.49212226, -0.31071624, 0.32595161, -0.81037843, -0.40016672, -0.25462151, 0.51217735, 0.17883161, 0.59191960, -0.10554613, -0.29868561, -0.08279090, 0.75078106, 0.09297204, 0.38414273};
#endif

#endif
