//Numpy array shape [50, 20]
//Min -4.593148708344
//Max 1.157825589180
//Number of zeros 0

#ifndef W6_H_
#define W6_H_

#ifndef __SYNTHESIS__
model_default_t w6[1000];
#else
model_default_t w6[1000] = {-0.27297974, -0.15013540, -0.23356859, 0.08944461, 0.01461732, -0.20973217, -0.23859119, 0.04957247, -0.00335872, 0.13066208, -0.27492967, 0.11134145, -0.16440281, 0.02813426, 0.16813287, -0.07625820, 0.21105075, -0.28807998, -0.26105976, 0.05511001, 1.15782559, -0.38497719, -0.44662791, 0.70469278, 0.40970895, 0.66212308, 0.61262655, -0.65779352, -0.04703330, -1.04222703, 0.08288258, 0.56575274, 0.30614644, 0.06291241, 0.37089160, -0.34104264, 0.78533143, -1.06502569, 1.08656800, -0.39136520, 0.26742041, -0.28498054, 0.02267088, 0.32198283, -0.22177988, -0.03987463, 0.33080485, 0.40892452, -0.38960341, 0.03497989, -0.32276559, 0.11597863, -0.28193012, 0.12136212, 0.92839372, -0.21300648, 0.27783018, 0.14654644, 0.45980924, -0.41569832, -0.01351909, 0.10026585, 0.50204945, -0.69691092, 0.05538378, -0.20985828, -0.25498337, 0.19085878, -0.41924617, 0.82521868, 0.30143699, 0.11448769, -0.20511104, -0.06619613, -0.11890713, -0.16100763, 0.11677710, 0.78100097, -0.10074552, -0.01300331, 0.23202930, -0.45679671, -0.80150974, 0.53041828, 0.05306444, 1.00641763, -0.97559673, 0.04837007, -0.10066385, -0.20561293, 0.04656556, 0.36273077, 0.57704788, -0.06500409, 0.08792036, -0.01768845, -0.40299135, -0.83322096, 0.54599142, -0.00107340, -0.14553517, 0.18805288, -0.05214101, 0.25253248, 0.28634334, 0.11016810, -0.21533261, -0.08847877, -0.11161408, -0.28875959, 0.08357859, 0.04637533, 0.20427221, 0.25818130, -0.13990553, -0.02566138, 0.15752763, 0.14188378, 0.26477966, 0.23870510, 0.65592009, -0.25029489, -0.35603029, 0.39354840, -0.99543524, 0.50300914, 0.92860359, -0.80300480, -0.55849725, -0.45463067, -0.32949695, 0.57424164, -0.07158166, 0.13863233, 0.43516937, 0.08155729, -1.15577400, -0.94725209, 0.71704477, 0.03251733, 0.21180518, -0.03248665, 0.23915888, 0.95999539, -0.87637067, 0.20598388, 0.12085737, -0.06222674, 0.14787610, 0.63839447, -0.02201017, 0.29838723, 0.00042120, 0.39046428, 0.36735171, -0.24255440, -1.29919529, 0.06170772, 0.31551224, -0.27822962, -0.24842931, 0.02767878, -0.15224889, 0.04881645, 0.77983648, -0.17708024, -0.33088997, -0.09186941, -1.35360944, 0.39777616, 0.70251381, -0.12197887, -0.16484691, 0.10691910, 0.10887014, -0.68357289, -2.65271258, 0.45218837, -0.15726012, -0.04365803, 0.28681481, 0.01326063, 0.35760453, 0.25510919, -1.72390950, 0.44278613, -0.57873660, -0.27140257, -0.92406666, 0.06839535, -1.01713324, -0.00797323, 0.16457511, 0.17245989, 0.13756838, 0.17196818, -0.36707246, -0.57499236, 0.37606090, 0.73080152, 0.25804812, 0.05908711, 0.05683097, 0.11095072, 0.06262821, 0.27890500, 0.07200301, -0.15519162, -0.12947741, 0.22934896, 0.25204554, 0.01830112, -0.07509363, 0.19703126, 0.17211774, -0.20734887, 0.02593562, -0.13550353, -0.21613184, -0.07772893, 0.24212070, -0.71573853, -0.48288661, 0.69346333, 0.08968773, 0.24650536, 0.91273636, 0.21124551, -0.25593641, -0.53323609, -0.49185878, 0.48250192, -1.14724028, -1.71239221, 0.42881188, -0.41299060, 0.13969056, 0.05958578, 0.59127945, -0.14441392, 0.68948138, 0.25128695, -0.16527997, 0.25509909, 0.19356436, 0.15957135, 0.38988680, 0.34999251, 0.42584926, 0.46334940, 0.05985097, 0.15093368, -0.42747995, -1.47476840, -0.31003478, -0.60348129, 0.27631134, 0.34399945, 0.43688434, -0.17291340, 0.11675880, 0.59306020, 0.12454696, -0.44876653, 0.10398836, -0.21960300, -0.48195726, 0.04579080, -0.69942647, 0.30381423, 0.32785037, -0.15450470, 0.79066449, -4.59314871, -0.24503838, 0.44707328, 0.08106901, -0.20540999, 0.04897257, -0.35576722, 0.17675960, -0.79779083, -0.84339023, 0.01574744, -0.07514283, 0.11316510, -0.84876972, 0.26561701, -0.45967236, 0.18429185, -0.73395926, 0.22113068, -1.00088716, -0.40000361, 0.18211642, -0.08756485, -0.22708270, 0.12238501, -0.05182259, -0.08954594, -0.12984452, -0.29140666, 0.04037734, 0.00905006, 0.04949522, -0.15336956, 0.24167401, -0.29576483, 0.19856942, -0.10034220, -0.21735662, -0.07614446, -0.14495097, 0.25830135, -0.06352720, 0.11693522, 0.24170810, 0.16995202, -0.10892290, 0.26169711, 0.29233545, -0.85646528, -1.11151206, 0.31477460, 0.01429559, 0.60129732, 0.34314108, -0.65140307, -0.05860713, -0.18959561, -0.48820570, 0.69568235, 0.91736794, 0.24327223, -0.62922353, 0.35485551, 0.11912740, -0.11841029, 0.46840599, -0.71993625, 0.09262640, 0.30811685, -0.01478920, -0.00388278, 0.00585313, -0.20108843, 0.34878376, -0.39047047, -0.11540494, 0.46226922, 0.05735610, 0.36712068, 0.09529195, 0.50538826, -1.08097994, -0.32754716, 0.16649881, 0.26314473, 0.38328519, -0.22965275, -0.29633278, 0.62794256, 0.72248757, -0.41006264, 0.21206518, -0.28941992, -0.36321375, 0.54044765, -0.08338264, 0.10784408, 0.16665159, 0.18311174, -0.55881166, 0.23737343, -0.79865146, 0.19967157, 0.03749333, -0.03938856, 0.05832545, 0.48878482, -0.22494093, -0.86691844, -1.30836904, -0.41306213, -0.23872818, 0.31279537, -0.88675928, -0.33620369, -0.12552537, 0.24810740, -0.49710104, 0.22388646, 0.89076900, 0.40144345, -0.21175666, 0.23869540, -0.01807189, -0.11315097, 0.37697226, -0.02525833, -0.00022988, 0.13820490, -0.26457983, -0.17938997, -0.24237472, 0.04236296, -0.01132184, 0.22494030, 0.23774421, -0.21255770, 0.08682396, 0.19400397, 0.07309607, 0.09851239, -0.10474051, 0.00237402, -0.23070729, -0.08090782, 0.00032582, -0.15339744, -0.02599200, -0.96944517, 0.11547510, 0.65291566, 0.29610339, 0.54125214, -0.00927689, -0.11554199, 0.15305939, 0.11182830, -0.14396699, -0.25697783, -0.31642345, 0.11005087, -0.27474478, 0.30501154, 0.21902722, -1.10826588, 0.08116785, 0.47364107, -0.08505991, 0.04228221, 0.36306724, -0.32392052, 0.05246023, 0.26775968, 0.17682070, 0.37513295, 0.45289907, 0.59389764, 0.15259412, -0.11108993, -0.10554866, 0.15416482, 0.11867467, -0.17057534, 0.23519401, -0.17677039, -0.06198559, 0.22149564, -0.50913787, 0.84171134, -0.14671746, -0.03498222, 0.03207597, -0.17747557, -0.23223236, 0.05255086, -0.15302463, 0.04726429, -0.01639745, -0.80910879, 0.11395670, -0.16903064, -0.03465107, -0.07483047, -0.17087136, 0.75333893, -0.14834206, -0.67842460, -0.24846031, -0.79556197, 0.37205282, -0.28592709, 0.46536785, 0.27228981, 0.04777136, 0.17764771, -0.21417733, 0.29000166, -0.40565690, -0.69820601, 0.09928165, -0.09903199, -0.49264005, 0.04709560, 0.25368184, -0.97425389, 0.37879720, -0.01632518, 0.00358555, 0.18206213, 0.14631146, 0.06097022, 0.19283646, 0.09234093, -0.00412181, 0.18353322, 0.04612175, 0.21718708, 0.24953684, 0.22493972, 0.18060301, -0.02698801, -0.20561972, -0.29117623, -0.17895111, 0.02161672, -0.15948351, 0.28067517, -0.12219133, 0.08182320, -0.19673122, 0.50406665, 0.04811121, 0.83637196, 0.06871261, -0.09947363, 0.36648646, -0.79173052, -0.98979288, 0.16615079, 0.90475750, 0.11714024, -0.38316959, -0.16270994, 0.34924480, 0.28522187, 0.64860123, -0.40978780, -0.15474933, 0.63857919, 0.27756914, -0.11094330, -0.02821241, 0.38285574, 0.75851846, 0.08131380, 0.14126424, 0.11235560, 0.42578962, 0.25707790, 0.19850178, 0.05954772, -0.07164238, 0.18404052, 0.01835402, 0.08364893, -0.02618447, -0.30735031, -0.43527621, -0.01340831, 0.43018723, -0.40125099, -0.14689820, -0.39662954, -0.00787639, 0.71874523, -0.40232262, 0.24001910, 0.70739233, -0.11001187, -0.49809304, -0.08836320, 0.14045846, 0.47908050, -0.25906399, -0.20046987, -0.30262163, -0.03708907, -0.12836272, -0.02219983, -0.42327452, -0.56608772, 0.41913754, 0.29831731, 0.27830788, -0.58832151, -0.07675309, -0.14073202, -0.90202284, 0.00216051, 0.63051045, 0.10146667, -0.28602329, -0.65071529, -0.11139766, 0.04926086, 0.40559655, 0.06842148, -0.02396026, 0.16500159, 0.13867801, -0.19674253, -0.22689107, -0.24222536, 0.04992139, 0.22939287, -0.13833009, -0.11713699, 0.06296607, 0.00169664, -0.20782387, -0.01863329, -0.06755602, -0.08534166, 0.25651431, -0.08817707, -0.02655541, -0.17086898, 0.46118435, -0.09289201, 0.04976967, 0.44742265, 0.32796758, 0.60642380, 0.29474181, -0.83508688, 0.45838344, -0.11995140, -0.78056413, 0.10945173, -0.19326703, 0.15290239, -0.83198386, 0.51021272, 0.11615618, 0.40016705, 0.14521344, -0.34125397, -0.13722588, 0.37179592, -0.06297491, -0.02658414, -0.08705160, 0.13549289, 0.45727703, 0.30800593, -0.57970935, 0.15268123, 0.49772623, 0.04334921, -0.08072928, -0.01861021, -0.18083550, -0.27408251, -0.03057926, -0.00529192, -0.18407877, 0.89962763, -0.02087598, 0.56091028, -0.18002659, -0.22580725, 0.04083675, -0.31347659, -0.34373772, 0.31039339, 0.34682643, -0.14080824, 0.51918030, -0.80981880, -0.07094549, -0.17033996, -0.14373825, -0.06442750, -0.03715554, -0.36997849, -0.38583267, -0.09337769, -0.40238345, -0.09612527, 0.18751204, 0.15265019, -0.17895995, 0.34970221, 0.26877600, 0.22234222, -0.38560036, -0.27305987, -0.69607526, -0.93334091, 0.03299966, -0.54019421, 0.25750926, -0.03501664, -0.32143971, 0.31466478, 0.46081260, -0.72631580, -0.12961274, -0.13154453, 0.10830653, -0.15252605, 0.12004098, -0.17582452, -0.06368305, -0.23440726, 0.15187737, -0.04815164, -0.01647051, 0.21469182, -0.04995081, 0.01322389, 0.06489608, -0.03897323, -0.28030285, -0.15855138, 0.11331636, -0.14833221, -0.33107242, -0.55725634, -0.29498240, 0.73523086, 0.19657417, 0.52455056, 0.12094661, 0.07885997, -0.00844291, -0.07697564, -0.62230915, -0.36035413, 0.46791816, 0.06136819, -0.71040666, 0.25471073, 0.00125149, 0.26054379, -0.03692609, 0.95020425, -0.01112808, 0.23293673, -0.09919988, -0.49071512, -0.27739972, 0.28134590, 0.50744897, 0.47941658, -0.12134550, 0.44015387, 0.30625868, 0.17305063, 0.17464924, 0.04713338, -0.05847484, 0.41517845, -0.19126625, 0.04999154, -0.27194536, 0.23191161, -0.48519036, 0.42051464, 0.20899016, -0.36735669, 0.23285764, -0.34491009, -0.23316835, 0.03141696, 0.21169591, 0.03932779, 0.64261490, -0.22939530, -0.23665488, -0.23796120, 0.35400769, 0.23403028, 0.04308840, -0.47162908, -0.27084488, -0.33069655, 0.60257125, -0.35483956, -0.29053789, -0.01763854, 0.09117496, 0.39331919, 0.23462091, 0.49368072, -0.69635832, -0.40041658, -0.45788550, 0.19901648, 0.04186103, 0.35999605, -1.38634825, 0.17749341, -0.36026356, 0.19794182, 0.21497260, 0.78445709, -0.12963876, -0.16267347, 0.19117013, -0.10396055, -0.19243434, -0.27278331, 0.26249501, 0.19924578, 0.10942125, -0.07689098, 0.29339758, 0.07259506, 0.00447661, -0.12912567, 0.27662098, -0.20326696, 0.15490615, -0.26089379, -0.02062375, -0.00457472, 0.25708517, -0.30029157, -0.21527947, 0.10114095, -0.32592776, 0.81864864, 0.23779938, -0.96321017, -1.41798067, 0.13975109, -0.34301257, -0.43330353, -0.28175256, -0.07093187, -0.58304375, 0.02477187, -0.91200185, 0.40985161, -0.04519876, 0.16285376, 0.10910609, 0.62833941, 0.04631292, -0.00948845, -0.21624950, 0.54021722, 0.53680819, 0.58957303, -0.18637075, 0.15603465, 0.53960067, 0.02139600, -0.47871155, -0.10508736, 0.01574609, -0.17626402, -0.12708977, -0.07217380, -0.26890910, -0.38719028, 0.03390639, 0.33848879, 0.44573206, -0.28050178, 0.15023968, -0.16143419, -0.30566138, 0.66289312, 0.53800559, 0.25326589, 0.42018038, -0.08063570, 0.30016986, 0.32668328, 0.40216368, -1.14850354, -0.26520425, -0.37325448, -0.31935117, -0.07760779, -3.10037112, -0.09633060, -0.31987968, -0.79858255, -0.70884085, 0.66986352, 0.31887361, -0.54280806, -0.01688158, -0.09473021, -0.31603339, 0.27854195, -0.90396410, 0.01321328, -0.41134140, 0.59986264, 0.08757094, 0.51855499, -0.14446732, 0.40878311, 0.25014549, -0.29154596, -0.03511605, 0.08285467, -0.14366381, -0.04862784, -0.18202899, 0.18615671, -0.13315262, -0.21930248, -0.06364329, -0.01217049, 0.22197753, 0.20970480, -0.22210746, -0.10035536, -0.01603565, -0.24463163, 0.09018627, -0.23172575, 0.38450542, -0.56355506, -0.78515500, 0.70174319, 0.47880575, 0.35712621, 0.61659050, -0.33294290, 0.31050265, 0.36272156, -0.29074126, -0.75990450, -0.15448643, -1.20900249, -0.01366796, 0.46522626, -0.41377383, 0.63151342, -0.67427433, -0.11270329, -1.19419622, -0.08851589, 0.19040033, 0.04509200, 0.25451475, -0.14156933, -0.18128306, 0.45007810, 0.69066566, 0.26925051, 0.03599295, 0.74526745, 0.07183529, -0.40564713, -0.09916079, 0.59501499, -0.01636280, 0.27706838, -0.65005231, -1.13529432, 0.06606767, 0.11247952, 0.30689883, -0.72218776, -0.44359800, -0.03795636, -0.32156539, 0.13785936, 0.97828603, 0.32997909, 0.57677257, -0.19089307, 0.04973597, -0.03655254, 0.12211972, -0.19158126, -0.12295128, -0.37783909, -0.40160269, 0.04856705, -1.44383061, -0.02339772, -0.12130146, -0.02870353, -0.98446977, 0.12118828, 0.43128949, -0.07854538, -0.35213628, 0.04415031, -0.12989210, -0.70742291, -0.02380115, 0.55414551, 0.10005062, 0.03924733, 0.45209882, 0.61221975, 0.37533250, -0.28223681};
#endif

#endif
