//Numpy array shape [20, 10]
//Min -1.000000000000
//Max 0.996093750000
//Number of zeros 0

#ifndef W12_H_
#define W12_H_

#ifndef __SYNTHESIS__
weight12_t w12[200];
#else
weight12_t w12[200] = {0.17578125, 0.22265625, 0.55468750, 0.30859375, -0.13281250, -0.05859375, 0.40234375, 0.23046875, -0.04296875, -0.38281250, -0.35546875, -0.15625000, 0.19531250, -0.25000000, 0.27734375, 0.07812500, -0.01953125, 0.14062500, -0.23437500, -0.14062500, 0.97656250, 0.51562500, 0.94140625, 0.89062500, 0.12500000, 0.10937500, -0.10937500, -0.81250000, -0.01953125, 0.98828125, 0.19140625, -0.27343750, -0.43359375, -0.29687500, 0.98437500, 0.13281250, 0.74609375, -0.22656250, 0.23437500, -0.03125000, -0.61718750, -0.08593750, 0.19140625, -0.42578125, 0.00781250, 0.73828125, 0.24609375, 0.12500000, -0.30859375, -0.08593750, 0.08984375, 0.41796875, -0.32421875, 0.43750000, -0.30468750, -0.66015625, -0.81250000, 0.17578125, 0.20703125, 0.33984375, 0.99609375, 0.39843750, 0.63671875, 0.17187500, 0.30078125, 0.09765625, -0.68359375, 0.20312500, -0.53906250, -1.00000000, 0.21484375, -0.24218750, -0.32812500, -0.11328125, 0.92187500, 0.82812500, -0.63671875, -0.08593750, -0.18359375, 0.14453125, -0.40234375, 0.63671875, 0.16406250, 0.14453125, -0.80078125, -0.90234375, -0.40234375, -0.19140625, 0.14453125, 0.02734375, 0.09765625, 0.01562500, -0.03515625, 0.09375000, 0.99218750, -0.08593750, -0.60156250, -0.19921875, 0.05468750, -0.74609375, 0.14062500, 0.12500000, 0.85156250, 0.09765625, 0.78515625, -0.58984375, -0.31640625, 0.01562500, 0.68359375, 0.87109375, 0.64843750, 0.42578125, -0.02343750, -0.58593750, 0.99609375, 0.41406250, 0.32421875, -0.60156250, 0.51171875, -0.24609375, -1.00000000, 0.04687500, -0.35546875, -0.44140625, -0.62890625, 0.68750000, 0.30468750, 0.34765625, -0.37500000, -0.30078125, 0.00390625, 0.13671875, 0.07421875, 0.06250000, -0.55859375, 0.08984375, -0.24218750, 0.66406250, 0.16406250, 0.30859375, 0.98828125, 0.28515625, 0.83984375, 0.56640625, -0.69531250, 0.64062500, -1.00000000, -0.99218750, -0.21875000, -0.42578125, 0.79296875, -0.98828125, -0.98437500, -0.96093750, 0.89062500, 0.99609375, -0.94140625, -0.16796875, -0.09765625, 0.09375000, 0.81640625, 0.57031250, 0.95703125, 0.23437500, -0.43359375, 0.57031250, 0.47656250, -0.02343750, 0.04296875, 0.96093750, 0.54296875, -0.10156250, 0.20312500, -0.68359375, 0.96484375, 0.17187500, -0.22265625, 0.06640625, -0.23437500, -0.58984375, 0.10937500, 0.54296875, 0.20312500, 0.58203125, -0.14453125, 0.02734375, 0.06250000, 0.06250000, 0.30859375, -0.04687500, 0.16406250, 0.07031250, 0.16406250, -0.18359375, 0.98828125, 0.23437500, 0.70312500, -0.21875000, 0.30859375, -0.32812500};
#endif

#endif
