//Numpy array shape [15, 1, 20]
//Min -1.000000000000
//Max 0.996093750000
//Number of zeros 1

#ifndef W2_H_
#define W2_H_

#ifndef __SYNTHESIS__
weight2_t w2[300];
#else
weight2_t w2[300] = {0.19140625, 0.19531250, 0.23437500, 0.08984375, 0.19921875, -0.17187500, 0.19140625, 0.18750000, 0.01171875, -0.07031250, -0.00781250, -1.00000000, -1.00000000, 0.28125000, 0.22265625, 0.09375000, -0.36328125, 0.21484375, -0.48437500, -0.31250000, 0.05468750, -0.21093750, 0.28125000, 0.01953125, -0.90625000, 0.15625000, -0.04296875, -1.00000000, 0.03906250, -0.11328125, 0.30468750, 0.33203125, -0.08203125, 0.55859375, -0.10156250, -0.27343750, 0.39062500, 0.32421875, -0.13671875, -0.47656250, 0.51562500, -0.80468750, -0.33593750, 0.17968750, 0.26171875, 0.23828125, 0.16796875, 0.12500000, -0.09375000, -0.40625000, -0.37500000, 0.16796875, 0.19531250, -0.43359375, -1.00000000, -0.08593750, -0.98437500, -0.19531250, -0.14843750, -0.17578125, 0.20703125, 0.23437500, 0.56250000, 0.65234375, 0.14062500, -0.12109375, 0.05078125, 0.25390625, 0.24218750, 0.99218750, 0.08593750, -0.32812500, -0.07031250, 0.27343750, 0.15625000, 0.19140625, 0.18750000, 0.02734375, -0.38671875, -0.34375000, -0.23046875, -0.56250000, -0.37890625, -0.02734375, -0.09765625, 0.00000000, 0.98828125, -1.00000000, 0.40625000, -0.32421875, 0.23046875, -0.39453125, 0.02734375, 0.38671875, -0.01171875, -0.25781250, 0.14062500, 0.17968750, -0.12890625, -1.00000000, -0.07421875, 0.08203125, 0.14843750, 0.10156250, 0.27734375, 0.04296875, 0.05078125, 0.67968750, -0.43359375, 0.16015625, -0.66015625, -0.66796875, -0.60937500, -0.05078125, 0.07421875, -0.24609375, 0.97656250, 0.98437500, 0.23828125, -0.13281250, -0.47656250, 0.16406250, -0.02343750, 0.07812500, -0.52734375, 0.23046875, 0.08984375, -0.44531250, 0.02734375, -0.70703125, 0.04296875, 0.08203125, 0.99609375, -0.37109375, -0.24218750, 0.07421875, 0.05468750, 0.02343750, -0.77343750, -0.01953125, -0.13281250, 0.02343750, 0.02734375, 0.28515625, -1.00000000, 0.03125000, 0.92578125, -0.06640625, -0.27343750, -0.06250000, 0.28906250, 0.02734375, -0.01953125, 0.25000000, 0.12500000, -0.26171875, 0.14453125, 0.10156250, -0.19140625, 0.99609375, 0.07421875, 0.30468750, 0.33593750, 0.13281250, 0.21875000, -0.35156250, 0.11328125, -0.08984375, 0.15234375, 0.10937500, 0.09765625, 0.11718750, 0.11328125, -0.05078125, -1.00000000, 0.67578125, -0.23046875, -0.12109375, -0.37109375, 0.20703125, 0.33593750, -0.23828125, 0.45703125, -0.37890625, -0.01562500, -0.16406250, -0.38671875, -0.33593750, 0.03906250, -0.94140625, 0.64062500, -0.50781250, -0.24218750, -0.15234375, -0.05859375, 0.28515625, 0.35937500, 0.25000000, -0.96093750, 0.19531250, 0.10937500, 0.12500000, -0.86328125, 0.22265625, 0.91796875, 0.19531250, 0.24609375, 0.08203125, 0.00781250, -0.22265625, -0.39062500, 0.10156250, 0.07812500, -0.13281250, -0.17578125, 0.01171875, -0.01953125, -0.41796875, -0.00390625, -1.00000000, 0.14453125, -0.13671875, 0.63671875, -0.03906250, -0.34765625, 0.13671875, 0.21484375, -0.95703125, -0.84375000, 0.35937500, -0.12109375, 0.15625000, -0.00781250, -0.04687500, -0.33984375, -0.28515625, -0.02734375, -0.47656250, -0.09765625, 0.15234375, -0.46875000, -0.52734375, 0.08203125, 0.50000000, 0.06250000, -0.63281250, 0.07031250, 0.06250000, -0.05078125, -0.01562500, 0.01171875, 0.99609375, -0.55859375, -0.15625000, 0.00390625, 0.01953125, -0.04296875, -0.28906250, -0.69921875, 0.24218750, 0.15625000, 0.07031250, 0.10546875, -0.15625000, 0.18359375, 0.62109375, -0.10546875, -0.36718750, -0.14062500, 0.40234375, -0.02343750, 0.26171875, 0.32812500, -0.43359375, -0.26171875, -0.05859375, 0.19531250, 0.23437500, -0.03906250, 0.99609375, 0.70312500, -0.28515625, 0.66406250, 0.16796875, -0.01953125, 0.11718750, 0.11718750, 0.12109375, 0.01171875, 0.10156250, -0.26171875, 0.11718750, 0.11328125, 0.00390625, -0.05078125, 0.00390625, -0.39453125, 0.99609375, 0.35937500, -0.04687500};
#endif

#endif
